<?xml version="1.0"?>
<opencv_storage>
<stage0>
  <maxWeakCount>6</maxWeakCount>
  <stageThreshold>-9.1358399391174316e-01</stageThreshold>
  <weakClassifiers>
    <_>
      <internalNodes>
        0 -1 4490 -2.7244450524449348e-02</internalNodes>
      <leafValues>
        8.9218920469284058e-01 -5.9479016065597534e-01</leafValues></_>
    <_>
      <internalNodes>
        0 -1 84938 3.1253300607204437e-02</internalNodes>
      <leafValues>
        -7.0351547002792358e-01 7.0632749795913696e-01</leafValues></_>
    <_>
      <internalNodes>
        0 -1 84453 -6.6546067595481873e-02</internalNodes>
      <leafValues>
        6.2223333120346069e-01 -7.2469300031661987e-01</leafValues></_>
    <_>
      <internalNodes>
        0 -1 122754 -1.5107057988643646e-03</internalNodes>
      <leafValues>
        7.9433387517929077e-01 -5.2068936824798584e-01</leafValues></_>
    <_>
      <internalNodes>
        0 -1 7465 -2.8989836573600769e-03</internalNodes>
      <leafValues>
        8.6938053369522095e-01 -4.3958386778831482e-01</leafValues></_>
    <_>
      <internalNodes>
        0 -1 56753 -2.9301570728421211e-02</internalNodes>
      <leafValues>
        7.5466459989547729e-01 -4.9110409617424011e-01</leafValues></_></weakClassifiers></stage0>
</opencv_storage>
