<?xml version="1.0"?>
<opencv_storage>
<stage3>
  <maxWeakCount>10</maxWeakCount>
  <stageThreshold>-1.3122261762619019e+00</stageThreshold>
  <weakClassifiers>
    <_>
      <internalNodes>
        0 -1 5772 -7.9588908702135086e-03</internalNodes>
      <leafValues>
        7.7468705177307129e-01 -1.7820657789707184e-01</leafValues></_>
    <_>
      <internalNodes>
        0 -1 124089 1.1453003622591496e-02</internalNodes>
      <leafValues>
        -3.2784536480903625e-01 6.6392993927001953e-01</leafValues></_>
    <_>
      <internalNodes>
        0 -1 99885 -1.3107128906995058e-03</internalNodes>
      <leafValues>
        6.5976357460021973e-01 -3.6329969763755798e-01</leafValues></_>
    <_>
      <internalNodes>
        0 -1 122300 -1.4218736905604601e-03</internalNodes>
      <leafValues>
        7.0002561807632446e-01 -3.4896311163902283e-01</leafValues></_>
    <_>
      <internalNodes>
        0 -1 45257 -2.2143065929412842e-02</internalNodes>
      <leafValues>
        6.5888029336929321e-01 -3.2801768183708191e-01</leafValues></_>
    <_>
      <internalNodes>
        0 -1 70135 -7.4056452140212059e-03</internalNodes>
      <leafValues>
        2.8493189811706543e-01 -7.7512162923812866e-01</leafValues></_>
    <_>
      <internalNodes>
        0 -1 15387 -1.7003517132252455e-03</internalNodes>
      <leafValues>
        7.6527792215347290e-01 -2.5294172763824463e-01</leafValues></_>
    <_>
      <internalNodes>
        0 -1 72299 -7.0288360118865967e-02</internalNodes>
      <leafValues>
        5.4518860578536987e-01 -3.3145505189895630e-01</leafValues></_>
    <_>
      <internalNodes>
        0 -1 121336 -1.2033473700284958e-02</internalNodes>
      <leafValues>
        7.9534780979156494e-01 -2.5884050130844116e-01</leafValues></_>
    <_>
      <internalNodes>
        0 -1 80020 -1.6602131072431803e-03</internalNodes>
      <leafValues>
        8.1466478109359741e-01 -1.6237336397171021e-01</leafValues></_></weakClassifiers></stage3>
</opencv_storage>
