<?xml version="1.0"?>
<opencv_storage>
<stage4>
  <maxWeakCount>15</maxWeakCount>
  <stageThreshold>-1.1521744728088379e+00</stageThreshold>
  <weakClassifiers>
    <_>
      <internalNodes>
        0 -1 5192 -3.1807038933038712e-02</internalNodes>
      <leafValues>
        5.8167332410812378e-01 -3.0872482061386108e-01</leafValues></_>
    <_>
      <internalNodes>
        0 -1 47931 -6.1404176056385040e-02</internalNodes>
      <leafValues>
        3.9290377497673035e-01 -5.3530508279800415e-01</leafValues></_>
    <_>
      <internalNodes>
        0 -1 122754 -2.8269859030842781e-03</internalNodes>
      <leafValues>
        5.9578210115432739e-01 -3.1940329074859619e-01</leafValues></_>
    <_>
      <internalNodes>
        0 -1 16774 -4.9143314361572266e-02</internalNodes>
      <leafValues>
        3.6900672316551208e-01 -5.5379760265350342e-01</leafValues></_>
    <_>
      <internalNodes>
        0 -1 106086 -9.7182113677263260e-04</internalNodes>
      <leafValues>
        8.3520257472991943e-01 -2.8517109155654907e-01</leafValues></_>
    <_>
      <internalNodes>
        0 -1 102742 -1.7016518861055374e-02</internalNodes>
      <leafValues>
        4.2947980761528015e-01 -4.6147799491882324e-01</leafValues></_>
    <_>
      <internalNodes>
        0 -1 7935 -1.9778579007834196e-03</internalNodes>
      <leafValues>
        5.4560625553131104e-01 -3.5044914484024048e-01</leafValues></_>
    <_>
      <internalNodes>
        0 -1 74415 -1.3400034978985786e-02</internalNodes>
      <leafValues>
        8.3003568649291992e-01 -1.8785282969474792e-01</leafValues></_>
    <_>
      <internalNodes>
        0 -1 8360 1.9858642481267452e-03</internalNodes>
      <leafValues>
        -1.8379737436771393e-01 7.9970008134841919e-01</leafValues></_>
    <_>
      <internalNodes>
        0 -1 23058 4.8080724664032459e-03</internalNodes>
      <leafValues>
        -2.8082177042961121e-01 5.8160293102264404e-01</leafValues></_>
    <_>
      <internalNodes>
        0 -1 118252 -6.0457754880189896e-03</internalNodes>
      <leafValues>
        4.5973369479179382e-01 -4.3987450003623962e-01</leafValues></_>
    <_>
      <internalNodes>
        0 -1 87610 -2.2725006565451622e-03</internalNodes>
      <leafValues>
        7.5296831130981445e-01 -2.3247918486595154e-01</leafValues></_>
    <_>
      <internalNodes>
        0 -1 15366 -1.0905938595533371e-01</internalNodes>
      <leafValues>
        -9.4361072778701782e-01 2.0217099785804749e-01</leafValues></_>
    <_>
      <internalNodes>
        0 -1 120824 -1.9734930247068405e-03</internalNodes>
      <leafValues>
        8.0218398571014404e-01 -2.1030229330062866e-01</leafValues></_>
    <_>
      <internalNodes>
        0 -1 104405 -2.0615402609109879e-02</internalNodes>
      <leafValues>
        3.1414735317230225e-01 -4.8476135730743408e-01</leafValues></_></weakClassifiers></stage4>
</opencv_storage>
