<?xml version="1.0"?>
<opencv_storage>
<stage1>
  <maxWeakCount>6</maxWeakCount>
  <stageThreshold>-8.0449861288070679e-01</stageThreshold>
  <weakClassifiers>
    <_>
      <internalNodes>
        0 -1 6463 -2.8453506529331207e-02</internalNodes>
      <leafValues>
        7.3695200681686401e-01 -4.7663551568984985e-01</leafValues></_>
    <_>
      <internalNodes>
        0 -1 9622 -7.9422313719987869e-03</internalNodes>
      <leafValues>
        5.4536771774291992e-01 -6.7639207839965820e-01</leafValues></_>
    <_>
      <internalNodes>
        0 -1 124222 1.5828947070986032e-03</internalNodes>
      <leafValues>
        -5.1524764299392700e-01 6.7236161231994629e-01</leafValues></_>
    <_>
      <internalNodes>
        0 -1 7463 -2.3187086917459965e-03</internalNodes>
      <leafValues>
        7.7406489849090576e-01 -3.8222137093544006e-01</leafValues></_>
    <_>
      <internalNodes>
        0 -1 94631 -1.3976221904158592e-02</internalNodes>
      <leafValues>
        5.6673014163970947e-01 -5.5163252353668213e-01</leafValues></_>
    <_>
      <internalNodes>
        0 -1 114446 2.3468092083930969e-02</internalNodes>
      <leafValues>
        -4.7701835632324219e-01 6.6413182020187378e-01</leafValues></_></weakClassifiers></stage1>
</opencv_storage>
