<?xml version="1.0"?>
<opencv_storage>
<stage2>
  <maxWeakCount>9</maxWeakCount>
  <stageThreshold>-1.6165776252746582e+00</stageThreshold>
  <weakClassifiers>
    <_>
      <internalNodes>
        0 -1 63566 -1.7231952399015427e-02</internalNodes>
      <leafValues>
        6.2559694051742554e-01 -4.6112117171287537e-01</leafValues></_>
    <_>
      <internalNodes>
        0 -1 72177 1.8942851573228836e-02</internalNodes>
      <leafValues>
        -4.2266401648521423e-01 6.9321650266647339e-01</leafValues></_>
    <_>
      <internalNodes>
        0 -1 122742 -1.1138895060867071e-03</internalNodes>
      <leafValues>
        6.6737061738967896e-01 -3.6448138952255249e-01</leafValues></_>
    <_>
      <internalNodes>
        0 -1 118999 5.5856769904494286e-04</internalNodes>
      <leafValues>
        -3.2050085067749023e-01 7.1115595102310181e-01</leafValues></_>
    <_>
      <internalNodes>
        0 -1 5194 -4.1191004216670990e-02</internalNodes>
      <leafValues>
        4.9078267812728882e-01 -5.1848971843719482e-01</leafValues></_>
    <_>
      <internalNodes>
        0 -1 14759 7.4904726352542639e-04</internalNodes>
      <leafValues>
        -3.1560248136520386e-01 7.8805100917816162e-01</leafValues></_>
    <_>
      <internalNodes>
        0 -1 71974 -2.4565979838371277e-03</internalNodes>
      <leafValues>
        7.6187324523925781e-01 -3.0443632602691650e-01</leafValues></_>
    <_>
      <internalNodes>
        0 -1 77727 3.4723833203315735e-02</internalNodes>
      <leafValues>
        -7.2447103261947632e-01 3.6827221512794495e-01</leafValues></_>
    <_>
      <internalNodes>
        0 -1 109843 -2.7876036241650581e-02</internalNodes>
      <leafValues>
        6.9511479139328003e-01 -3.8120737671852112e-01</leafValues></_></weakClassifiers></stage2>
</opencv_storage>
