<?xml version="1.0"?>
<opencv_storage>
<stage5>
  <maxWeakCount>14</maxWeakCount>
  <stageThreshold>-1.6179889440536499e+00</stageThreshold>
  <weakClassifiers>
    <_>
      <internalNodes>
        0 -1 80358 1.8723305314779282e-02</internalNodes>
      <leafValues>
        5.2922588586807251e-01 -8.0838322639465332e-01</leafValues></_>
    <_>
      <internalNodes>
        0 -1 65026 -3.1443230807781219e-02</internalNodes>
      <leafValues>
        5.8092701435089111e-01 -3.3513504266738892e-01</leafValues></_>
    <_>
      <internalNodes>
        0 -1 118692 8.8639813475310802e-04</internalNodes>
      <leafValues>
        -2.6698514819145203e-01 7.4280881881713867e-01</leafValues></_>
    <_>
      <internalNodes>
        0 -1 9626 -3.6610201001167297e-02</internalNodes>
      <leafValues>
        5.4582679271697998e-01 -3.8275739550590515e-01</leafValues></_>
    <_>
      <internalNodes>
        0 -1 123300 -2.7343940455466509e-03</internalNodes>
      <leafValues>
        7.6768475770950317e-01 -2.0481981337070465e-01</leafValues></_>
    <_>
      <internalNodes>
        0 -1 84899 6.5663354471325874e-03</internalNodes>
      <leafValues>
        -8.0212903022766113e-01 2.3432824015617371e-01</leafValues></_>
    <_>
      <internalNodes>
        0 -1 122742 -9.0519391233101487e-04</internalNodes>
      <leafValues>
        4.4187751412391663e-01 -4.3398633599281311e-01</leafValues></_>
    <_>
      <internalNodes>
        0 -1 6954 -1.4821658842265606e-03</internalNodes>
      <leafValues>
        5.2578133344650269e-01 -3.3978009223937988e-01</leafValues></_>
    <_>
      <internalNodes>
        0 -1 55614 -9.2814228264614940e-04</internalNodes>
      <leafValues>
        7.6548093557357788e-01 -2.3625694215297699e-01</leafValues></_>
    <_>
      <internalNodes>
        0 -1 119417 8.6196735501289368e-03</internalNodes>
      <leafValues>
        -2.9531466960906982e-01 6.2666290998458862e-01</leafValues></_>
    <_>
      <internalNodes>
        0 -1 28324 1.1910832254216075e-03</internalNodes>
      <leafValues>
        -2.0334596931934357e-01 7.2616392374038696e-01</leafValues></_>
    <_>
      <internalNodes>
        0 -1 13345 4.1864686645567417e-03</internalNodes>
      <leafValues>
        -1.5903344750404358e-01 9.5775967836380005e-01</leafValues></_>
    <_>
      <internalNodes>
        0 -1 18513 -2.0083622075617313e-03</internalNodes>
      <leafValues>
        8.8132286071777344e-01 -1.3544395565986633e-01</leafValues></_>
    <_>
      <internalNodes>
        0 -1 118039 8.0594536848366261e-04</internalNodes>
      <leafValues>
        -1.5006843209266663e-01 7.5579327344894409e-01</leafValues></_></weakClassifiers></stage5>
</opencv_storage>
