<?xml version="1.0"?>
<opencv_storage>
<stage0>
  <maxWeakCount>5</maxWeakCount>
  <stageThreshold>-7.4795192480087280e-01</stageThreshold>
  <weakClassifiers>
    <_>
      <internalNodes>
        0 -1 77190 -4.1342720389366150e-02</internalNodes>
      <leafValues>
        8.1256437301635742e-01 -6.1844199895858765e-01</leafValues></_>
    <_>
      <internalNodes>
        0 -1 64364 -4.6293314546346664e-02</internalNodes>
      <leafValues>
        7.7490800619125366e-01 -4.7214779257774353e-01</leafValues></_>
    <_>
      <internalNodes>
        0 -1 97732 2.7254611253738403e-02</internalNodes>
      <leafValues>
        -5.4698091745376587e-01 6.3791990280151367e-01</leafValues></_>
    <_>
      <internalNodes>
        0 -1 6970 -1.8275070469826460e-03</internalNodes>
      <leafValues>
        5.5157148838043213e-01 -6.4086210727691650e-01</leafValues></_>
    <_>
      <internalNodes>
        0 -1 100317 -3.7882395088672638e-02</internalNodes>
      <leafValues>
        -8.4685361385345459e-01 3.4951344132423401e-01</leafValues></_></weakClassifiers></stage0>
</opencv_storage>
